28 28
-2164.623 0.000 0.000 0.000 0.000 0.000 0.000 0.000 0.000 0.000 0.000 0.000 0.000 0.000 0.000 0.000 0.000 0.000 0.000 0.000 0.000 0.000 0.000 0.000 0.000 0.000 0.000 0.000 0.000 0.000 0.000 0.000 0.000 0.000 0.000 0.000 0.000 0.000 0.000 0.000 964.437 1906.274 783.604 0.000 1455.215 3977.591 1891.782 0.000 0.000 0.000 0.000 0.000 0.000 0.000 0.000 0.000 0.000 0.000 0.000 0.000 0.000 0.000 0.000 0.000 -6920.488 -22558.988 -20941.230 -6471.668 -6766.381 -22346.211 -55928.340 -61908.438 -58649.918 -47829.668 -45301.414 -5161.171 -7431.969 -19384.455 -10496.692 -383.091 0.000 0.000 0.000 0.000 0.000 0.000 0.000 -385.088 -389.124 -5322.778 -17594.447 -31049.695 -43231.023 -12580.348 -13010.456 -1977.401 -12220.981 -37514.898 -4522.064 -25821.662 -65513.875 -82929.688 -86911.055 -124571.703 -137508.172 -98325.227 -78822.211 -30066.766 -11861.347 -4976.042 -4644.219 -1127.023 0.000 0.000 0.000 -1320.300 -841.422 -1681.311 -32198.465 -34431.855 -38267.566 -13746.370 -43601.383 -76457.633 -70936.734 -59909.953 3301.254 3733.972 33730.895 47318.199 -19923.926 -91583.898 -80177.031 -127244.438 -97351.047 -1500.837 -2946.831 -35237.320 -11294.276 -359.689 0.000 0.000 0.000 -183.375 -4135.604 -2705.440 -42633.914 -64277.105 -74227.305 -72546.695 -62051.906 -37487.227 -48279.316 5193.849 173959.922 86309.430 123380.391 87546.555 114365.148 162988.750 85812.688 6657.371 2112.200 7090.726 -44247.336 -66451.641 -36533.762 -3326.587 -1154.725 0.000 0.000 0.000 -0.000 -3524.251 -22474.744 -79386.297 -62810.176 -78145.805 -82507.281 -19712.625 13969.683 42492.090 105534.695 41984.441 18834.768 58566.555 187212.125 208645.453 168344.484 99424.641 119455.367 49354.844 -80040.969 -147405.391 -81011.797 -22846.334 -6598.342 0.000 0.000 0.000 -0.000 -8078.889 -23887.154 -66993.641 -81919.938 -136196.750 22019.760 20709.219 58461.813 112742.914 93131.625 61472.293 105234.352 193113.891 246371.844 206948.016 204051.609 51309.758 57887.773 140872.688 8588.382 -162403.734 -138879.531 -62810.574 -184.531 1429.494 0.000 2399.327 4540.559 -11277.841 -82756.016 -106575.922 -146918.031 -83908.945 2911.342 -14722.773 42274.359 114906.070 61901.637 64903.559 205785.766 271749.625 221426.828 169289.750 143448.844 6895.476 -11255.534 97686.086 127624.633 -125637.594 -155823.328 -51404.766 0.000 0.000 0.000 1459.726 6797.252 -9059.860 -117281.211 -160470.422 -63781.891 -36983.695 -48725.895 -44832.355 -25540.387 -42228.121 94007.938 37193.109 34241.707 202341.969 264140.969 261491.172 139520.438 2272.861 -24751.568 94875.352 192628.797 -26883.061 -93725.750 -28766.713 0.000 0.000 0.000 2447.357 4400.310 -1998.489 -95503.852 -114313.383 -64153.273 -83513.648 -58136.293 -122674.070 -63524.734 -39961.664 -25708.090 -106036.625 -133966.422 14670.744 172039.797 200550.094 198879.641 65606.555 56901.602 205329.766 285726.250 119736.125 -53767.875 -25856.627 0.000 0.000 2409.356 0.000 1888.207 -80392.359 -145013.797 -106693.219 -56055.664 -54414.328 -33921.945 -115329.758 -5313.538 -41741.672 -69866.344 -239731.953 -344861.531 -338973.063 -174008.297 -3059.089 136366.047 55705.828 103831.938 193558.750 284031.375 162733.344 -14355.962 -4951.688 0.000 0.000 0.000 0.000 -22255.586 -64817.938 -69796.102 41071.922 50581.875 -7168.156 -54323.457 6214.103 8261.699 10369.738 -76178.047 -316092.625 -484027.344 -419453.219 -278392.531 -104690.430 31194.506 16250.381 134414.500 242680.469 299950.719 154589.750 13025.416 -919.130 0.000 0.000 0.000 0.000 -25327.826 -37299.594 -2000.587 145315.703 165180.922 60529.457 41647.426 116316.063 86319.852 4988.178 -257517.672 -406703.188 -507631.406 -470492.344 -209841.703 -25309.332 -46556.172 -94792.047 124858.414 288856.438 297205.375 135655.281 26346.512 -245.431 0.000 0.000 0.000 0.000 -19203.955 17535.941 131619.578 160350.719 166216.328 147333.875 143433.516 207918.438 98949.000 -120693.680 -369421.844 -550289.375 -572353.000 -506307.156 -97951.555 -28718.900 -158238.188 -81785.938 118696.797 204059.750 232857.063 133894.094 17650.793 0.000 0.000 0.000 0.000 0.000 -17099.391 35114.555 202209.703 196577.438 137431.891 97501.305 114559.055 247812.500 142789.938 -99481.398 -404297.813 -577574.000 -546469.313 -366484.594 -120645.602 -110581.055 -82737.852 -32741.436 124228.133 189408.922 156159.781 83474.516 5136.630 0.000 0.000 0.000 0.000 0.000 -11550.644 8060.530 173044.484 245265.016 162460.656 149050.734 145616.984 154351.969 121505.797 -131364.250 -499203.563 -611002.938 -439633.125 -249338.391 -31624.775 -98121.133 35076.176 -55001.711 111814.359 148908.922 62684.070 -22515.773 -16680.607 -9095.682 112.433 0.000 0.000 0.000 -19827.486 13961.210 180030.422 205171.656 197941.594 148233.250 184840.125 162615.531 20849.119 -266878.063 -554897.500 -541692.750 -361953.594 -154363.500 -22129.928 -29547.844 21712.594 -10166.532 58371.492 158106.078 -4786.105 -61460.719 -26826.570 -13809.083 420.053 0.000 0.000 0.000 -39818.340 42166.086 138970.344 198665.281 184278.750 172379.344 280398.063 251359.969 103280.305 -174706.906 -390324.750 -357885.969 -210831.547 -81616.164 -83739.836 67747.195 -41875.270 -37909.387 46445.031 146883.516 20502.779 -66105.047 -10317.822 -1877.671 -197.210 0.000 0.000 0.000 -30823.270 43956.727 98203.516 121197.180 155442.219 143867.438 196390.906 291831.313 251675.125 146065.359 -63334.711 -79961.133 -66592.039 -27172.662 -6545.985 -26463.420 -135874.359 -19210.629 90444.992 108113.859 7819.411 -31801.256 -10193.580 -196.893 0.000 0.000 0.000 -1398.075 -31564.320 31945.041 130563.672 73888.492 -8291.024 27269.219 161338.625 226976.922 187577.000 140688.922 80455.203 -34861.352 -96719.203 -131479.516 -66874.375 -148414.813 -167223.516 -79483.016 47774.328 13661.096 -16968.770 -22803.500 -6161.931 0.000 0.000 0.000 0.000 -15301.157 -30534.064 -27789.648 12350.121 118508.867 55384.320 15725.291 -18106.855 39816.793 154880.453 109875.531 66627.992 1174.180 -16156.400 -2933.942 -104078.969 -123371.836 -124636.625 -83646.953 17890.873 3511.603 -7924.235 -23013.838 -435.046 1272.371 0.000 0.000 0.000 -5747.637 -26654.393 -38262.152 6300.072 -6547.601 -8757.472 58163.191 99371.836 189999.828 232673.594 222815.281 288314.781 192140.938 78404.703 -21804.584 -19951.617 -48879.098 -81184.664 -83072.898 -41278.152 6305.333 -1362.752 -16576.641 0.000 131.172 0.000 0.000 0.000 0.000 -11424.873 -46390.289 -18706.596 9242.707 25799.795 -12359.956 180704.719 247858.047 251044.953 147964.281 206292.641 151255.313 36078.531 -50067.199 -62436.531 -159915.563 -175063.656 -103273.180 -77054.086 -20937.945 -9520.473 -2895.065 0.000 0.000 0.000 0.000 0.000 0.000 0.000 -7011.641 -1049.469 3686.665 -69624.172 -112997.398 -148939.156 -175769.875 -171353.000 -85060.742 -76662.500 -57350.695 -49399.820 -103562.313 -160565.063 -150762.828 -102977.578 -54809.867 -40327.117 -6656.363 -39.789 0.000 0.000 0.000 0.000 0.000 0.000 0.000 0.000 0.000 -0.000 -8406.714 -70598.453 -118129.203 -135073.141 -158278.844 -182034.859 -158123.766 -133168.922 -126719.086 -146097.125 -131634.125 -135497.766 -83720.156 -23549.832 -21413.697 -14403.747 -2454.143 -10.249 0.000 0.000 0.000 0.000 0.000 0.000 0.000 0.000 0.000 -0.000 -3381.394 -39131.531 -47596.555 -51077.316 -42195.781 -23686.189 -10682.080 -26508.668 -63222.336 -66142.023 -57340.121 -51650.996 -24790.781 -5673.191 -18028.979 -6242.137 -2341.246 -95.778 0.000 0.000 0.000 0.000 0.000 0.000 0.000 0.000 0.000 0.000 0.000 -3381.394 -7919.602 -7919.602 -6406.870 0.000 0.000 -5280.336 -7275.289 -13258.666 -15305.295 -3381.394 -0.000 -5603.156 -17720.033 -5323.243 -2703.078 -617.238 0.000 0.000 0.000 0.000 
28 28
692.744 0.000 0.000 0.000 0.000 0.000 0.000 0.000 0.000 0.000 0.000 0.000 0.000 0.000 0.000 0.000 0.000 0.000 0.000 0.000 0.000 0.000 0.000 0.000 0.000 0.000 0.000 0.000 0.000 0.000 0.000 0.000 0.000 0.000 0.000 0.000 0.000 0.000 0.000 0.000 0.000 0.000 0.000 0.000 0.000 0.000 0.000 0.000 0.000 0.000 0.000 0.000 0.000 0.000 0.000 0.000 0.000 0.000 0.000 0.000 0.000 0.000 0.000 0.000 0.000 -846.611 -1825.257 -1438.321 -2944.784 14273.993 33988.242 38151.152 50789.520 43358.539 25173.416 157.414 -300.854 2872.973 0.000 0.000 0.000 0.000 0.000 0.000 0.000 0.000 0.000 3465.791 825.187 0.000 0.000 0.000 -8425.766 -22604.836 -27855.107 -40154.398 -72820.344 -40848.918 -12465.716 17149.863 97046.945 100246.852 32907.855 3232.012 -32428.094 -15165.115 -2297.596 -7525.943 -8508.036 -4740.621 -295.102 0.000 0.000 0.000 0.000 11882.707 2888.156 955.208 4444.978 1350.565 -21898.500 424.673 -20269.135 -14812.502 -50253.664 -2509.356 92345.977 172390.219 128306.641 -13312.474 -38926.020 -60482.277 31421.375 100572.672 146305.688 112519.219 30260.420 -28348.941 -20207.617 0.000 0.000 0.000 0.000 1650.373 412.593 1200.138 10370.118 -5379.769 -29148.881 -61667.570 -22065.619 -8735.723 -45215.434 35137.938 143950.391 179385.250 91437.781 3915.163 -94389.078 -73689.484 38985.242 118997.086 208764.438 112134.063 -3985.784 -40517.266 -39115.832 0.000 0.000 0.000 0.000 0.000 0.000 3423.766 -3900.533 -31929.424 -109776.906 -128991.836 -104117.383 -4384.811 -39389.414 -12958.260 30557.377 -31654.414 -66376.070 -113103.734 -162277.359 -89759.328 -38193.594 43527.137 101624.859 25577.299 -53028.953 -62824.492 -27754.660 -0.000 0.000 0.000 0.000 0.000 0.000 4312.628 -19543.836 -68218.617 -93973.398 -140470.891 -118640.750 731.148 -97224.500 -90839.828 -75840.977 -138556.891 -163387.641 -167910.922 -190018.047 -125169.219 -95208.148 -24926.645 21078.514 -62611.742 -49509.156 -62773.020 -25746.482 -0.000 -0.000 0.000 0.000 0.000 0.000 1437.566 -30299.299 -66397.125 -80025.430 -113935.523 -127973.773 -55231.328 -114768.117 -104676.133 -62570.500 -89858.383 -40894.465 -142418.297 -45533.914 -69502.438 -46538.750 -75269.586 -92302.492 -126321.281 -132807.047 -97171.703 -30606.969 -0.000 -0.000 0.000 0.000 0.000 -1988.318 -18187.143 -58179.793 -69863.766 -87721.719 -107881.047 -136541.625 -72490.414 -58920.379 -22453.527 27180.604 102000.578 142996.406 60395.059 -6177.695 -48040.621 -84592.234 -117028.086 -126914.266 -149060.781 -145760.766 -98044.672 -35355.773 -8370.079 0.000 0.000 0.000 0.000 -19634.688 -22581.707 -61401.395 -81183.188 -81996.242 -55286.324 -80089.953 -63359.645 -46055.012 31186.506 144816.172 247268.297 296413.219 130323.641 -36786.469 -77826.008 -119287.750 -146905.125 -183121.578 -158775.156 -129724.758 -95114.797 -30751.252 -13586.916 0.000 0.000 0.000 0.000 -12758.335 -24375.936 -42520.777 -58814.797 -74083.555 -52261.797 -44510.297 -95198.492 -114713.977 9435.819 216860.547 319713.969 386045.750 136744.688 -62765.438 -29101.764 -101387.875 -153481.250 -126080.000 -70591.906 -57509.266 -43127.281 -4028.195 486.574 0.000 0.000 0.000 0.000 -1988.318 -5215.319 -28494.555 -26747.473 -25775.803 -6360.056 -34342.813 -126932.594 -232398.547 16782.422 234262.609 421963.250 304094.406 116014.750 40433.531 -37736.555 -117354.273 -80359.625 -48961.199 -56022.797 -49589.500 -27705.725 2223.566 486.574 0.000 0.000 0.000 0.000 32.329 -2134.596 -26823.943 -32900.301 -17078.738 -5912.995 -68046.695 -224765.656 -367743.594 -36496.805 267233.625 282392.531 265623.000 127502.539 -19018.951 -128246.063 -115698.711 -71333.258 -58228.684 -74686.711 -66893.883 -20599.490 2096.951 378.446 0.000 0.000 0.000 4.390 64.258 -4308.028 -27455.953 -57685.789 -63650.793 -20615.572 -113159.992 -300657.563 -343691.375 119753.766 244067.438 240655.313 273139.563 74888.000 -196007.109 -215552.875 -177788.828 -139275.672 -113925.117 -80837.078 -63056.910 -7885.847 448.626 100.491 0.000 0.000 0.000 25.544 0.000 -9268.290 -47457.086 -96462.594 -101230.266 -67151.164 -163178.391 -225039.750 -150538.781 139573.672 254479.484 294089.719 226871.688 -11933.010 -229102.984 -218205.719 -169061.172 -128377.906 -115753.969 -78644.648 -60392.957 -12703.817 -113.341 14.034 0.000 0.000 0.000 16.763 -265.893 -25997.080 -71807.023 -151335.266 -137031.750 -130353.438 -120811.422 -52567.758 -24182.387 42759.863 175994.438 338949.281 101046.250 -101515.102 -259409.969 -202680.656 -125658.820 -84967.281 -82014.516 -62573.000 -43189.746 -29506.576 -12684.116 -3648.773 0.000 0.000 0.000 0.000 -1191.935 -28459.693 -107058.156 -172487.016 -173987.141 -84900.789 -30518.553 28715.518 60352.184 63282.609 222036.203 182074.016 10939.365 -121173.844 -238129.828 -114786.133 -80484.516 -72579.727 -74752.383 -37817.223 -28227.172 -37176.121 -20091.855 -3556.103 -440.099 0.000 0.000 0.000 -2007.958 -11010.788 -112641.680 -172110.406 -134146.625 -25235.482 28084.850 878.538 39446.211 103617.266 202852.859 115029.758 -27071.178 -70029.820 -60670.813 -35290.004 -58969.469 -47755.707 -24060.662 7225.629 1075.961 -5096.032 -6981.323 -1742.056 4617.115 0.000 0.000 0.000 -302.569 -14695.642 -124048.555 -127011.344 -60155.477 -17569.107 34740.801 31771.494 -15062.429 -12870.580 63650.574 11606.023 -19148.432 42244.160 25550.705 31076.660 48566.129 23280.986 24191.627 5086.596 -152.795 -5862.542 4776.638 -192.544 2041.631 0.000 0.000 0.000 -1089.995 -8909.723 -44951.047 2407.803 48815.871 -6901.810 6525.917 9589.203 17123.826 -132261.969 -15942.636 34446.441 -34896.035 66764.430 165054.109 165546.016 119070.672 65237.141 39764.281 7730.055 -39210.242 -40075.297 -5693.658 0.000 0.000 0.000 0.000 0.000 -68.684 17493.033 89417.953 141281.391 193155.234 85115.969 39073.543 78960.742 -58884.898 -79691.523 -18541.129 59555.473 41310.223 19281.172 177747.234 158016.156 114524.805 61821.844 9885.741 -42250.027 -52505.715 -35816.066 -451.103 0.000 0.000 0.000 0.000 0.000 -2123.876 23935.668 126216.516 176371.781 226925.297 100603.734 33717.723 24831.275 -156113.922 -205926.125 -149665.563 4828.987 -29815.127 17552.826 127868.617 114899.148 56807.305 17927.820 -42369.465 -67240.250 -29218.904 -5427.445 1375.564 105.355 0.000 0.000 0.000 0.000 -13448.256 7712.393 59232.547 86829.289 153867.172 63748.719 21811.768 -81919.867 -139228.578 -88741.406 -136497.219 -150811.891 -7031.059 58563.910 87705.125 39284.223 27148.691 12808.490 -16226.637 -7994.600 -6150.519 -2209.714 -293.001 1120.832 0.000 0.000 0.000 0.000 -7989.740 -12815.649 -23811.656 -27697.189 -49893.500 -19300.156 -15709.837 -109557.945 -107221.922 -105574.906 -139771.625 -171391.516 -64106.480 -102293.852 -44125.934 -16324.980 -2333.665 -14606.080 -17360.342 -10948.053 -3099.817 -2575.969 2384.030 486.574 0.000 0.000 0.000 0.000 0.000 -12242.246 -43498.820 -49044.977 -29698.734 -7354.066 -31212.637 -130479.078 -136411.938 -153484.188 -160104.906 -161441.953 -93814.242 -80893.344 -53409.730 -10306.985 -3007.351 -165.037 0.000 -430.931 0.000 0.000 0.000 0.000 0.000 0.000 0.000 0.000 0.000 0.000 0.000 0.000 -779.344 -2310.523 -2209.672 -15507.424 -28984.191 -32932.391 -34936.883 -37158.430 -19463.000 -11087.982 -540.957 0.000 0.000 0.000 0.000 0.000 0.000 0.000 0.000 0.000 0.000 0.000 0.000 0.000 0.000 0.000 0.000 0.000 0.000 0.000 0.000 0.000 0.000 0.000 0.000 0.000 0.000 0.000 0.000 0.000 0.000 0.000 0.000 0.000 0.000 0.000 0.000 0.000 0.000 
28 28
1718.286 0.000 0.000 0.000 0.000 0.000 0.000 0.000 0.000 0.000 0.000 0.000 0.000 0.000 0.000 0.000 0.000 0.000 0.000 0.000 0.000 0.000 0.000 0.000 0.000 0.000 0.000 0.000 0.000 0.000 0.000 0.000 0.000 0.000 0.000 0.000 0.000 0.000 0.000 0.000 0.000 -105.548 -69.863 3101.531 10737.076 8992.027 -1.562 -103.202 -49.519 0.000 0.000 0.000 0.000 0.000 0.000 0.000 0.000 0.000 0.000 0.000 0.000 0.000 0.000 -2645.710 153.766 14933.910 -15594.925 -20024.367 -26708.645 19727.824 40628.887 50354.258 39378.902 -4632.465 1552.385 -24335.168 -34574.977 -12998.302 -55146.797 -47574.035 -2414.519 2861.984 1851.866 0.000 0.000 0.000 0.000 -385.088 -91.687 0.000 1860.055 4118.255 -7253.286 -5081.228 23331.959 67860.641 158638.203 180743.188 166269.844 94041.805 129713.133 136713.516 61425.430 -33896.719 -59959.551 -64974.840 -60460.148 -63990.258 -37334.059 -32650.836 -18193.285 0.000 0.000 0.000 0.000 -1320.300 -647.609 -1360.689 12431.052 53987.762 51505.617 54122.887 173928.969 204686.578 264148.875 246335.156 153274.156 44963.695 -23757.887 73492.055 93358.023 67535.133 -93365.547 -117439.719 -109602.094 -108798.586 -67292.328 -48539.488 -18088.119 0.000 0.000 0.000 0.000 -183.375 2623.204 -8476.992 10447.943 105969.750 176553.203 169388.906 164356.688 152237.469 248250.141 237107.141 170933.766 69657.242 103143.039 223877.156 294951.219 178933.188 47253.398 -4634.212 13351.842 -66474.695 -69647.602 -48839.223 -20522.717 0.000 0.000 0.000 0.000 -1699.231 1570.555 -9372.527 68787.359 117666.180 184388.578 38253.266 118386.102 22413.631 12235.385 237.354 67764.438 49965.055 47510.383 116366.586 62550.758 1697.922 -36575.141 -30790.203 -26249.770 -99638.109 -113023.914 -38004.207 -3236.981 0.000 0.000 0.000 0.000 9688.818 19328.115 36657.266 43531.840 87773.297 65635.359 57830.656 57560.109 -18357.521 46270.391 -7768.846 85014.977 110212.523 28716.621 -114977.719 -145679.094 -72144.094 -94844.234 -23196.492 -14099.944 -15169.768 -139224.234 -64639.770 -8593.535 0.000 0.000 0.000 3070.706 5224.243 35411.250 95264.406 137317.047 66810.086 133509.766 82854.352 80938.648 153098.922 107887.898 95020.352 68985.789 89545.242 117852.680 4942.584 -51064.535 -48823.012 4590.685 -607.416 -2666.896 -315.030 -119990.492 -107270.602 -43386.988 0.000 0.000 0.000 0.000 4725.022 33985.090 70240.211 101519.078 82869.141 42575.258 84537.906 63261.355 124012.383 63982.387 132151.234 79682.438 69576.461 226189.172 11692.835 5806.065 39243.410 42997.707 50820.359 -55428.484 -46058.340 -140483.828 -67556.047 -28339.045 712.691 0.000 0.000 0.000 2906.570 25987.443 929.692 62790.922 49799.102 -24124.691 -63952.754 -67270.828 -24924.703 -16103.082 -85251.828 -195679.828 -28243.834 8096.752 1847.440 81021.859 20669.943 -1730.284 -28803.625 -50946.898 -44589.566 -44645.305 -49812.563 -19679.439 1531.795 0.000 0.000 0.000 -35.663 3218.882 -25350.088 -85746.828 -201369.609 -292516.281 -379042.781 -328850.438 -264290.156 -335622.406 -382753.500 -400910.125 -264960.250 -309347.563 -66658.859 -158556.547 -112849.664 79146.563 -13786.782 -49126.480 -77087.672 -100618.805 -40937.871 9263.172 586.268 0.000 0.000 0.000 0.000 -13875.387 -82024.242 -272891.656 -418325.469 -484876.313 -433926.406 -410443.406 -341791.906 -398535.469 -349847.375 -340024.438 -299364.031 -288201.250 -220218.234 -146818.953 -142237.828 158044.906 2211.872 93219.156 -100188.734 -163963.328 -34362.293 33838.848 16046.361 1488.798 0.000 0.000 0.000 -2453.345 -134297.781 -366314.281 -476259.688 -433527.344 -316988.563 -257477.969 -91327.805 -39766.680 -35736.109 61968.117 -51878.039 -99235.133 -199716.328 -121968.461 -164090.250 -15067.117 -101446.508 16935.963 -137482.391 -173154.531 -25315.244 55292.770 53055.906 7575.790 0.000 -69.802 -48.650 1944.449 -94509.117 -249340.344 -283589.469 -165235.344 -103995.492 -58241.207 49172.355 61724.648 136745.609 332551.656 148307.031 14363.301 -55874.348 -190145.141 -53237.648 -119734.977 -96985.414 -31406.475 -56830.383 -50289.336 -9550.796 86975.273 35943.746 597.411 0.000 -159.346 1162.657 34338.531 2163.214 3807.246 -1009.371 78202.617 8674.309 -26083.438 -17438.936 21915.211 56806.758 185057.313 101216.484 48142.887 -329.097 -34092.945 -120809.859 -52399.430 -97238.781 -125168.070 -89371.094 -6980.175 82598.461 169419.375 48385.516 16921.473 0.000 -75.443 4234.830 93254.461 112898.133 53204.383 237025.703 102585.930 -28017.564 55737.367 89023.570 61074.379 170031.203 178155.188 79610.453 20415.264 78564.508 17288.490 34918.789 8149.040 -333.468 78283.039 73493.656 181007.109 223972.516 261828.344 126212.477 28572.564 0.000 -26.088 6665.304 82065.594 140511.047 195231.688 214819.172 14134.968 2583.528 24351.404 130626.328 185263.813 256832.078 232209.313 40205.254 -10014.098 115302.734 56972.387 84499.078 11744.036 36535.832 143605.828 182733.703 199537.047 337293.781 295535.313 77190.672 7699.208 0.000 0.000 2916.991 61692.168 162588.734 271845.031 205601.703 129342.945 149780.375 60488.129 85772.078 93682.383 192980.484 139019.391 83131.398 34855.262 72550.977 127576.563 585.657 -42676.250 -21827.844 72859.875 136606.047 357862.313 371642.625 203134.203 14890.739 1370.808 0.000 0.000 3222.987 12038.799 113710.070 179494.344 135827.781 177912.641 143603.922 87942.234 118363.539 120497.898 82373.133 180686.922 40163.766 85039.875 177438.172 52645.832 18690.750 -14298.554 114779.625 126539.539 113342.922 317163.031 240404.703 73730.805 20832.443 0.000 0.000 0.000 5764.489 78768.055 120119.930 83377.859 117829.039 173070.734 199937.047 181926.578 242641.141 126222.547 176450.172 53650.039 -2289.520 27740.605 101858.961 3172.279 124006.133 123486.625 180415.266 159151.188 199374.125 320818.969 270489.750 37504.527 4202.350 0.000 0.000 0.000 8527.500 60020.797 127417.914 137962.313 144453.906 72684.023 129726.930 179573.250 146024.516 69109.336 64786.195 42189.973 -48938.156 -91080.273 77472.836 104807.211 99812.328 127675.328 188986.953 191150.625 167981.609 234229.688 166593.391 27340.381 155.381 0.000 0.000 0.000 1786.300 18272.107 74639.391 119422.047 201600.156 156513.953 159388.703 94999.945 1607.179 76094.523 61604.520 -55800.457 -57758.824 -111789.367 13446.246 26149.490 79290.797 110642.469 230386.531 100922.695 86786.945 127981.508 82841.523 13616.072 -228.518 0.000 0.000 0.000 0.000 -8141.491 -860.224 -15088.803 -42004.250 -26242.916 76276.188 -5147.752 -26371.156 38408.688 21985.291 11966.003 33656.223 -19491.414 -19911.553 -39069.543 47490.918 113378.281 100563.570 74235.188 39884.047 83963.547 40172.672 13634.734 -138.063 0.000 0.000 0.000 0.000 -25633.633 -38537.199 -76893.508 -115758.539 -131157.297 -83278.820 -105865.813 -103196.711 -52479.191 10168.958 46493.910 128509.117 63640.777 -27769.863 -86352.648 -101324.188 -55736.109 24826.932 37151.512 -7161.135 18137.398 20330.186 9068.438 1117.181 0.000 0.000 0.000 0.000 -5068.604 -9521.664 -22663.031 -43644.262 -72610.352 -74778.211 -63513.410 -114302.203 -146911.484 -89705.164 -66579.570 -49633.242 -63971.871 -74883.719 -71749.102 -51544.609 -39105.535 -29408.871 -40389.199 -13830.239 -3811.342 216.595 991.779 1185.575 0.000 0.000 0.000 0.000 0.000 0.000 -3114.455 -20377.412 -20444.906 -11386.940 -2298.654 -3465.794 -9861.666 -6547.603 -18363.734 -13203.729 -2579.402 -12144.613 -21420.637 -14260.110 -25526.334 -20823.910 -12860.638 -1051.084 0.000 0.000 0.000 0.000 0.000 0.000 0.000 0.000 0.000 0.000 0.000 0.000 0.000 0.000 0.000 0.000 0.000 0.000 0.000 0.000 0.000 0.000 0.000 0.000 0.000 0.000 -103.232 -1445.241 0.000 0.000 0.000 0.000 0.000 
28 28
-995.584 0.000 0.000 0.000 0.000 0.000 0.000 0.000 0.000 0.000 0.000 0.000 0.000 0.000 0.000 0.000 0.000 0.000 0.000 0.000 0.000 0.000 0.000 0.000 0.000 0.000 0.000 0.000 0.000 0.000 0.000 0.000 0.000 0.000 0.000 0.000 0.000 0.000 0.000 0.000 0.000 0.000 0.000 0.000 0.000 0.000 0.000 0.000 0.000 0.000 0.000 0.000 0.000 0.000 0.000 0.000 0.000 0.000 0.000 0.000 0.000 0.000 0.000 0.000 0.000 0.000 0.000 3927.000 12111.217 18269.875 7541.860 2524.126 -3481.521 -8580.396 -36614.859 -6995.332 -552.538 43.436 0.000 0.000 0.000 0.000 0.000 0.000 0.000 0.000 0.000 -385.088 -91.687 0.000 7058.295 5801.671 55927.461 66294.398 54625.191 53708.977 72087.281 118436.148 81912.125 131873.781 142848.375 113075.102 85066.016 68586.805 98546.688 71274.094 25598.328 -15982.357 -18940.113 -2122.089 -64.181 0.000 0.000 0.000 0.000 -1320.300 5.797 9658.309 15850.985 37007.082 125782.883 150171.578 127004.742 175831.219 219838.047 266911.688 254392.984 242127.656 210183.266 121450.305 54996.938 40337.598 12474.361 -79826.984 -136568.000 -84480.078 -85167.625 -23026.484 -100.856 0.000 0.000 0.000 0.000 -183.375 16204.885 78560.008 115894.523 171525.281 204458.719 197714.031 144128.813 158600.797 111757.977 52691.734 28915.549 97437.156 94699.766 146034.969 106597.609 56140.492 -41511.727 -130818.953 -273431.156 -177908.938 -141093.625 -60522.566 -13849.297 -7866.339 0.000 0.000 0.000 8059.392 39909.969 82857.000 125992.781 131689.844 78613.453 128915.414 106416.305 48291.387 14259.774 9410.001 97377.938 36440.160 104171.367 78518.648 86450.367 206618.453 1216.101 60239.063 -33526.508 -83832.289 -163699.094 -119972.977 -35221.277 -33060.293 0.000 0.000 0.000 18328.793 13518.306 105060.219 140120.891 71260.781 101311.156 -11606.404 92523.492 97245.297 38769.805 206740.047 107336.141 114497.727 127555.961 6932.717 10119.683 33932.281 85464.695 176996.906 -47766.523 -77264.133 -185624.141 -200477.672 -35421.656 -7392.482 0.000 0.000 0.000 12442.158 33890.809 169124.672 197023.516 116032.859 102256.227 27429.197 -34993.949 108980.023 112557.219 117137.906 123825.531 162464.594 155823.625 116931.359 85510.898 77674.289 37032.164 164046.922 34331.078 -2454.850 -163019.984 -157477.172 -33393.355 -245.595 0.000 0.000 0.000 11853.180 49538.316 207040.781 164484.719 68583.719 40743.234 14912.683 -85959.172 -101865.898 -251927.578 -174943.141 -7397.591 101808.289 123712.102 179677.016 121721.367 78758.422 84931.602 229865.188 93673.242 56247.184 -142449.063 -125906.383 -31270.721 -277.949 0.000 0.000 0.000 1339.881 55153.137 60130.457 -11147.915 -98088.867 -132231.125 -249165.500 -328006.688 -396496.844 -376656.188 -229130.844 20647.996 220772.047 170254.969 164173.938 184112.422 146932.750 253567.234 175494.766 65231.719 43558.898 -115306.539 -97505.273 -13606.450 -10.294 0.000 0.000 0.000 0.000 36611.695 -28343.621 -139765.359 -199759.203 -264121.750 -287432.156 -226539.047 -186852.500 -37869.313 -95029.758 3396.497 97384.922 73065.867 10331.343 134972.875 138344.375 168352.578 145670.703 -37264.352 -20824.484 -90148.477 -60441.910 -864.117 0.000 0.000 0.000 0.000 0.000 731.906 -47335.840 -186878.141 -259207.734 -221387.125 -178714.125 -104715.875 10230.198 -14658.078 560.273 93726.164 255997.891 163600.078 7912.692 34390.664 153199.750 65322.805 -15915.566 -180448.734 -84429.188 -59492.527 -39904.207 42.729 0.000 0.000 0.000 0.000 0.000 -1870.609 -62908.637 -195052.297 -323003.563 -252649.531 -235306.563 -52134.926 -130751.875 -126531.781 -29694.770 139060.797 285602.500 7868.562 91990.914 51780.965 108442.055 -154602.000 -106843.852 -188753.703 -212820.297 -47780.008 -3306.400 -1424.867 0.000 0.000 0.000 69.802 48.650 -6896.078 -56234.340 -184452.438 -219871.438 -201315.703 -137101.297 -83809.625 -106945.711 -125064.289 24530.385 60275.301 46105.008 -21410.992 -84219.352 49175.984 -7097.809 -88020.469 -71113.805 10689.786 -145868.063 -73130.602 6737.009 -3528.109 -47.878 0.000 0.000 159.346 -99.082 -16463.336 -58776.586 -97356.789 -96855.398 -199527.984 -134822.344 -191535.000 -121495.719 -35910.563 114625.664 225465.172 185087.625 89875.367 13377.517 81717.563 71538.992 91053.633 121729.484 80910.125 -9884.896 72395.180 34389.332 -1718.124 -228.549 0.000 0.000 75.443 -1185.893 -17962.760 19546.863 11965.131 -113071.633 -139869.938 -200584.578 -266161.156 -197403.750 -74711.203 35702.887 212214.672 48927.520 -111330.891 -115479.945 -2541.782 80439.000 137195.750 128752.242 103891.891 192004.797 162629.031 60110.754 -2482.174 -228.549 0.000 0.000 26.088 -2193.184 2422.746 103269.383 32905.043 -44209.895 -80461.383 -135546.813 -301561.531 -337431.750 -254967.547 -141023.875 -142650.016 -159321.281 -43059.375 -48000.660 -28516.811 -58927.898 160716.953 44247.164 150505.781 231136.875 154305.953 -9795.863 -19670.176 -1035.755 -440.099 0.000 0.000 -1809.714 80930.031 99784.609 59434.207 27024.992 -45847.164 -25158.137 -187134.219 -335737.594 -280652.156 -234464.719 -227346.641 -110803.609 -1514.493 76881.867 105679.359 104662.695 137263.094 118883.531 205247.500 204005.234 120399.578 -65473.820 -9867.364 -1742.056 -146.700 0.000 0.000 1451.858 134809.266 183190.141 242679.984 154509.156 65766.352 35308.418 13864.117 -160953.844 -120020.539 -144994.156 -96735.789 -60558.313 100346.711 163783.672 249838.625 147560.094 104865.875 46675.762 200791.656 142677.781 51591.000 -36185.379 -520.366 -192.544 0.000 0.000 0.000 623.426 150385.094 269321.406 235306.688 241281.344 192209.922 126938.750 152006.516 -69136.227 -130246.875 -201609.844 -137858.734 55302.352 31278.518 82008.469 125528.719 204808.688 76038.742 236504.328 187469.156 16917.898 -37272.125 -24412.262 -0.000 0.000 0.000 0.000 0.000 9460.740 107946.203 237994.594 103533.047 140522.000 109205.695 -37124.141 75540.828 43708.621 -97874.523 -68273.680 -31438.875 22907.250 19234.432 31009.447 107661.320 184669.828 191068.703 93218.000 -11140.729 -103728.938 -60763.992 -21811.047 -0.000 0.000 0.000 0.000 0.000 5066.914 99473.820 179571.641 147866.281 22368.924 -52403.414 -44806.168 -78345.406 -56371.574 -29571.619 -191550.359 -209650.391 -61187.633 -62053.883 32295.936 57955.613 56454.879 54629.891 -40133.605 -48688.992 -7404.118 -20114.396 -7515.344 -892.357 0.000 0.000 0.000 0.000 94.956 69994.063 235818.063 271704.313 244709.906 59604.164 -56900.980 -68605.945 -54912.977 43344.031 19755.113 -22543.252 -53764.340 -66171.445 53296.688 55150.648 104224.250 -66490.266 -37343.414 -30938.107 -16053.735 -25526.111 -16683.846 -6294.126 0.000 0.000 0.000 0.000 94.956 40658.992 88166.094 145201.719 200656.188 212071.531 150115.953 136671.438 211231.344 143010.203 97329.766 104781.273 90577.180 18557.008 87845.180 86561.703 -2205.141 -59333.652 -64877.879 -55472.219 -31101.990 1167.890 -2105.756 0.000 0.000 0.000 0.000 0.000 7.001 -1789.118 -9432.609 2694.715 62752.211 121613.359 167950.734 237956.203 289657.813 217088.234 246009.234 207973.234 140220.438 108599.602 81379.180 23957.850 30114.750 -292.414 -86956.438 -71786.391 -34100.660 0.000 0.000 0.000 0.000 0.000 0.000 0.000 0.000 0.000 387.629 3422.476 7038.771 16709.100 11456.993 16631.311 10317.497 -9535.925 -9534.800 -10550.267 -23113.307 -11972.061 27397.691 42413.371 25355.947 3375.201 -29669.629 -36848.902 -1196.624 0.000 0.000 0.000 0.000 0.000 0.000 0.000 0.000 0.000 0.000 0.000 0.000 0.000 0.000 0.000 0.000 0.000 0.000 0.000 0.000 0.000 0.000 0.000 0.000 0.000 0.000 0.000 0.000 0.000 0.000 0.000 0.000 0.000 
28 28
547.925 0.000 0.000 0.000 0.000 0.000 0.000 0.000 0.000 0.000 0.000 0.000 0.000 0.000 0.000 0.000 0.000 0.000 0.000 0.000 0.000 0.000 0.000 0.000 0.000 0.000 0.000 0.000 0.000 0.000 0.000 0.000 0.000 0.000 0.000 -4498.895 -10857.979 -7375.925 -1861.381 -18073.828 -31043.396 -37431.641 -9369.038 861.974 -12181.820 -12863.023 -1891.782 0.000 0.000 0.000 0.000 0.000 0.000 0.000 0.000 0.000 0.000 0.000 0.000 0.000 0.000 0.000 0.000 -2374.906 -19555.264 -19598.139 -7266.793 -39580.309 -107522.789 -89643.430 -36012.949 -16891.650 -50805.266 -43220.109 -5323.434 1698.207 0.000 7.354 128.695 137.520 0.000 0.000 0.000 0.000 0.000 0.000 0.000 -385.088 -91.687 0.000 0.000 -4259.245 -7106.015 -25872.598 -44770.016 -69041.438 -130196.016 -116836.133 -120142.359 -125896.977 -172049.594 -152819.188 -79881.516 -22770.465 25276.596 3810.154 -11795.406 -10165.986 -5658.556 -626.163 -64.181 0.000 0.000 0.000 0.000 -1320.300 -320.906 11209.696 9542.408 3171.983 4237.367 -19700.268 -32705.531 -130727.375 -153588.938 -114386.922 -118733.703 -156919.766 -183852.203 -127660.641 -81152.969 -11415.381 66435.055 108108.406 68955.906 51775.055 20563.473 -15902.184 -21824.986 -5219.044 0.000 0.000 0.000 -183.375 -45.844 14146.538 55499.762 68603.352 47434.273 36485.207 20374.479 -171523.203 -179053.203 -163832.406 -201120.406 -95375.906 -69418.180 -46392.098 -3919.578 -5754.089 14277.832 26483.219 125396.133 205844.641 214562.844 74595.859 -10812.684 -3601.564 0.000 0.000 0.000 0.000 -1974.259 21109.066 57979.426 59577.547 74740.930 46296.969 8946.322 -188791.063 -190231.734 -171105.219 -205267.328 -201967.672 -149875.266 -243265.000 -203636.516 -178596.484 -74783.281 -21339.631 106043.102 293759.375 253739.984 113923.844 7032.425 17748.924 0.000 0.000 0.000 0.000 3668.856 23035.145 109253.602 72693.305 13184.954 -27181.496 -31236.363 -180538.656 -199822.125 -282523.000 -281131.563 -236889.391 -227951.016 -206855.547 -216727.641 -174833.688 -117684.883 -79497.875 -58732.223 138048.219 197274.188 84265.430 6677.844 1209.247 -164.066 0.000 -0.000 453.649 2364.139 -26565.914 56310.492 -9681.594 -47532.883 -75243.891 -4025.684 -190544.109 -206504.750 -176132.266 -287404.000 -266750.844 -262193.219 -150317.406 -91702.844 -93674.320 -183704.359 -150394.484 7054.279 62316.059 59604.199 -4176.855 -16304.095 -7758.616 -2920.375 0.000 -0.000 -12745.835 -36852.648 -79916.547 -21476.814 -63068.910 -33280.766 -82073.711 -4972.934 -50103.012 -95725.703 -54103.469 -87996.211 -248057.563 -252641.922 -103438.883 -103180.422 31529.014 -35821.254 -98632.133 63864.402 -22193.512 -98930.805 -99152.453 -43467.891 -3174.046 -32.813 0.000 -17.098 -18693.479 -32266.166 -53454.262 -48211.715 -59409.746 -120673.633 -64183.492 177411.250 84978.984 93938.586 122937.461 -198517.250 -452038.750 -149022.188 -43682.734 16939.563 -11086.143 -26550.732 -149752.406 -19548.229 -121208.547 -157838.953 -91488.297 -56624.664 -4550.580 0.000 0.000 -729.496 -8263.552 8533.752 -22847.727 -16235.320 32186.018 -37749.188 127920.633 174464.219 181879.547 214463.047 64380.891 -309220.813 -363625.844 57413.730 219701.172 29922.387 -19215.680 -64224.543 -144921.672 -79462.320 -146446.484 -143692.203 -99665.086 -51583.055 -3325.026 0.000 0.000 -1306.439 -10909.856 -15889.016 -26337.896 -809.124 105952.539 145613.891 253446.609 164927.375 288834.969 386510.625 295844.344 -32409.531 -164226.438 66692.258 173737.969 68001.648 81750.203 -19920.445 26137.131 -29436.814 -63472.781 -56199.668 -31213.219 -12856.511 -2274.878 -1161.688 0.000 -269.253 -8499.786 -45589.250 5212.371 39998.609 175351.266 198751.938 244250.813 196098.188 266589.563 437214.594 356710.906 -54519.125 -123300.000 80686.063 208758.172 230063.203 249087.625 99885.938 145513.781 44247.852 88697.523 13726.587 -24184.688 6130.908 -3186.597 -4867.067 0.000 -94.203 -908.208 -9300.793 29916.469 80344.703 218018.422 351563.156 237915.313 29185.107 101482.063 277450.469 221188.609 -75482.531 -65088.563 171081.078 248641.797 309403.875 75450.172 166498.531 101621.422 94031.578 93003.055 78285.172 -2325.887 -7232.304 -10948.784 -540.786 0.000 0.000 4151.263 23993.996 36993.344 86666.109 150695.031 224968.516 269059.063 179840.422 90304.672 119072.055 7051.919 -66831.375 -33686.398 90207.258 293942.469 259544.094 58731.531 96565.211 -4020.828 58261.465 99230.844 11611.409 -123838.203 -56399.223 -15150.620 -0.000 0.000 0.000 -406.251 -1552.176 8870.348 68203.719 84576.102 238546.125 266844.688 138247.578 45245.633 -46808.289 -18601.182 32650.141 227455.969 347149.438 252711.453 214295.703 220382.813 75958.031 79039.375 103568.758 -70902.117 -122689.508 -99490.602 -65191.336 -42058.777 -112.433 0.000 0.000 1614.132 -30736.186 -53319.543 -58575.000 -6430.387 99664.922 133415.406 -3764.935 -35248.770 -33348.059 60323.676 196610.828 356073.219 369207.375 253489.953 148937.766 92131.320 -80464.336 -24212.008 -48746.691 -113006.078 -96508.523 -58671.105 -87436.906 -25478.734 -1414.523 -1737.265 0.000 1667.697 -28882.217 -61949.078 -113510.188 -81047.289 -20114.369 -68616.445 -116693.156 -121191.680 -22081.443 138188.875 236280.563 235309.219 176295.891 139271.172 -164685.313 -67531.445 -19908.742 9672.640 -45437.137 -179983.750 -166146.344 -100075.664 -95948.039 -7465.650 -146.700 0.000 0.000 1941.659 1650.763 -69357.102 -127145.031 -133912.891 -191241.172 -247492.656 -211739.297 -258040.641 -199311.281 -118555.563 -104117.711 -1566.332 10329.225 -63797.188 -145985.859 -50505.285 -79590.164 -60970.090 -28177.625 -146884.922 -130441.664 -91081.359 -35787.691 -208.049 0.000 0.000 0.000 1979.674 325.791 -30338.271 -107266.258 -151752.953 -287779.844 -335952.406 -255159.625 -269415.281 -144281.016 -97027.836 -113242.633 -100709.758 -66580.078 6685.276 137.239 -47374.789 -45896.180 -31297.053 -6220.158 -87407.156 -105539.492 -61863.648 -23440.584 0.000 0.000 0.000 0.000 79.052 -7539.809 -22645.754 -25144.092 -148811.969 -206823.672 -154732.094 -144672.781 -164806.719 -1880.271 -56842.164 -77005.109 -1943.399 -42783.203 10569.242 -7912.585 -11946.625 25739.992 20849.016 42241.344 -19216.025 -14078.218 -43246.395 -21004.926 0.000 0.000 0.000 0.000 0.000 -7511.328 -11188.803 -21869.834 -93489.742 -95175.922 -77847.531 -133292.250 -78261.719 10531.878 -74361.008 11371.748 -37980.988 -15847.281 -25424.523 46248.582 78311.922 161386.109 51158.805 81613.422 4816.861 -21311.240 -45618.129 -9575.691 0.000 0.000 0.000 0.000 0.000 0.000 -3537.625 -21802.838 -25264.990 -30749.770 -59947.961 -90404.180 -34342.945 36152.719 -36134.492 -12868.749 18115.637 40371.352 -34490.680 163155.797 244448.172 176589.219 72281.984 52469.051 6542.301 -39550.922 -30282.193 -65.542 0.000 0.000 0.000 0.000 0.000 0.000 -17722.039 -24289.074 -37706.250 -77304.086 -76296.719 4382.220 18887.836 -2136.125 -126572.758 -91074.219 -38311.746 -57341.895 -1240.735 19259.457 49876.410 97393.367 29260.346 19537.969 2048.569 -43918.629 -29462.938 37.151 0.000 0.000 0.000 0.000 0.000 0.000 -7744.946 -36793.207 -114987.117 -138052.047 -141993.969 -153109.844 -154919.125 -145707.063 -161061.219 -78269.977 -62224.156 -15252.942 -137160.656 -215902.547 -146584.953 -64180.613 -27262.570 -13668.371 -32861.145 -37626.309 -22535.299 0.000 0.000 0.000 0.000 0.000 0.000 0.000 -7321.352 -10199.220 -22474.096 -19109.402 -16782.225 -69726.867 -109849.547 -92971.398 -97035.125 -130634.484 -122892.977 -77330.313 -98086.211 -121304.086 -90855.898 -52792.191 -22708.246 -8176.579 -7779.348 0.000 0.000 0.000 0.000 0.000 0.000 0.000 0.000 0.000 0.000 0.000 -145.486 -826.787 -752.269 -141.938 0.000 0.000 0.000 -15604.201 -51952.336 -17533.080 -177.761 -21411.322 -44534.094 -9491.330 -147.617 -2509.481 -1596.948 0.000 0.000 0.000 0.000 0.000 
28 28
8115.277 0.000 0.000 0.000 0.000 0.000 0.000 0.000 0.000 0.000 0.000 0.000 0.000 0.000 0.000 0.000 0.000 0.000 0.000 0.000 0.000 0.000 0.000 0.000 0.000 0.000 0.000 0.000 0.000 0.000 0.000 0.000 0.000 0.000 0.000 0.000 0.000 0.000 0.000 0.000 0.000 0.000 0.000 0.000 0.000 0.000 0.000 0.000 0.000 0.000 0.000 0.000 0.000 0.000 0.000 0.000 0.000 0.000 0.000 0.000 0.000 0.000 0.000 0.000 0.000 0.000 0.000 -3963.980 -13412.933 -10924.992 -4821.594 -5451.063 -4051.775 2052.047 202.055 17116.039 12669.791 7929.747 -2306.996 -3065.667 -2048.945 -2837.936 -1827.998 0.000 0.000 0.000 0.000 -385.088 219.700 4515.107 -2492.487 -5392.281 -32179.250 -30796.475 -28765.223 -23076.387 -49335.930 -38203.043 -38146.055 -26618.432 -16710.631 1702.269 75536.914 73086.352 33121.336 48723.555 39804.492 26314.711 -4907.433 -5231.300 11134.662 1127.023 0.000 0.000 0.000 -1320.300 224.021 -9736.554 -25214.148 -48809.453 -96063.898 -144194.250 -86299.617 -76456.969 -24044.246 -28413.959 -145833.766 -66372.977 148597.656 203883.047 120101.188 100849.281 -30291.861 -58592.918 101356.164 88052.641 104901.781 99495.234 35248.156 359.689 0.000 0.000 0.000 -183.375 -7227.414 -74901.602 -111976.250 -138042.781 -163934.766 -62635.410 55262.066 37572.020 62666.141 35523.125 -20113.363 38264.777 16658.061 51218.297 29327.930 36176.652 41566.156 68453.008 74161.516 93824.031 147317.328 134793.531 86367.797 16072.561 1154.725 0.000 0.000 -3892.256 -22687.068 -78844.711 -114785.398 -71900.547 -44421.113 33467.875 64634.160 39472.477 57492.906 1719.420 -24964.809 52957.145 -54869.945 39043.914 43270.141 61573.957 141640.703 -39235.996 7519.652 136971.891 325154.563 323085.594 171257.063 72197.367 9982.914 0.000 0.000 -16756.498 -37963.246 -120818.703 -118542.031 -33871.926 38439.637 148979.578 65268.277 104185.430 123785.023 -43674.438 1760.174 53011.672 -143290.875 -49367.043 86318.586 47782.387 17209.209 -55872.605 18011.100 93966.813 279584.656 501638.594 361724.219 129305.789 27852.643 0.000 0.000 -9037.965 -48956.473 -162865.094 -151323.406 -122914.750 -78189.453 111283.695 29941.098 22166.576 115820.406 31822.342 33062.898 -12113.156 -106522.836 -28649.277 34903.570 33423.645 4880.925 116982.813 97557.633 50298.148 378768.813 639026.188 442074.469 143800.234 22135.316 0.000 0.000 0.000 -42482.000 -111210.227 -140316.125 -115892.430 14100.916 78548.430 90752.711 152486.984 247695.438 142369.359 -4995.908 -142006.703 -277353.063 -283296.594 -148046.938 -127518.781 -108492.594 144764.594 223305.563 126564.734 421389.906 632004.375 457120.719 129611.297 10888.390 0.000 0.000 0.000 -35609.539 -43487.863 -57840.629 -390.068 171749.406 220159.453 226078.328 245090.000 209802.797 218964.484 131724.156 -59943.738 -76833.742 -106622.109 -150382.828 -150229.891 -168095.469 -44600.879 80890.281 -22829.336 237413.109 445270.250 362357.094 103848.688 0.000 0.000 0.000 0.000 -33482.078 882.846 23461.932 106797.734 226252.969 125206.383 33442.152 106921.219 69266.086 345970.000 392049.469 138457.625 -13539.929 -66614.047 -12151.475 -131509.453 -287384.688 -325083.938 -291962.344 -334305.375 -84480.984 131013.031 189369.266 59362.730 0.000 0.000 0.000 0.000 -31928.820 42622.496 107384.773 112954.477 157544.609 97756.242 24483.631 29830.396 205755.656 277486.656 280621.656 20784.104 -58938.461 -224387.094 -187727.641 -234143.078 -256239.828 -275670.781 -476426.750 -467734.406 -335853.031 -154067.203 -12467.405 17851.367 -269.888 0.000 0.000 0.000 -25703.564 44241.277 131343.094 108445.219 85214.133 35516.918 129892.766 149204.797 202474.109 252002.938 150566.063 -87522.617 -273115.875 -304098.156 -229852.813 -182717.500 -85028.273 -93912.367 -303251.656 -294595.969 -271674.375 -135052.313 -39909.352 -803.791 -2468.970 121.738 0.000 0.000 -2998.946 38611.266 18323.109 74267.688 72546.828 43517.262 133383.625 137916.125 113436.031 171578.719 78195.367 88581.891 -76732.430 -58086.223 -65423.512 -109457.820 -140970.125 21128.400 -148410.875 -93389.453 -130794.438 -74906.563 -33687.484 -3636.144 -29.987 39.861 0.000 -0.000 11333.145 34746.352 -100649.094 -96271.500 -48566.461 -125106.344 104087.070 95647.914 97516.070 96884.391 -87189.867 -91025.773 -172138.313 -245081.891 -139660.891 -13104.257 -100629.625 -34810.699 5379.403 -47544.859 -35079.938 -17847.404 -29667.377 -7177.452 -5254.297 0.000 0.000 -0.000 20388.254 -26510.170 -92592.664 -36703.063 -221798.000 -294063.531 -176327.797 -94023.359 -40352.859 32166.979 -53368.305 -111390.172 -114342.211 -173314.484 -70152.156 -68988.719 -123300.313 -5919.566 54766.293 86220.172 2214.156 32636.609 -15252.765 -13352.801 -10817.695 0.000 0.000 -0.000 25827.326 -14585.109 75319.414 175842.688 -94772.609 -211801.125 -114849.766 -169528.781 -153430.625 -211597.500 -176902.984 -132908.281 -102594.625 -18570.826 67097.992 49338.590 30005.566 73345.344 61225.355 24491.625 55873.785 64202.520 -20570.639 -4229.758 -996.435 0.000 0.000 665.392 -8929.693 72110.008 210343.375 258037.563 140109.766 13818.062 -16412.600 -123241.305 -158457.125 -158153.906 -26987.654 15048.037 -20044.131 17203.998 31188.783 14701.200 70166.328 135145.734 49602.191 49740.105 85638.977 83339.250 -1848.979 -1756.410 -146.700 0.000 0.000 7819.399 -5195.341 116176.539 175413.750 233852.156 145970.719 144957.922 106779.750 32817.656 65288.008 124904.930 127659.617 121243.805 94382.594 -80346.180 -25188.889 12959.285 56826.516 44346.938 -39933.984 66904.227 119587.531 96815.484 14649.883 -579.921 0.000 0.000 0.000 4545.233 -33815.867 5952.252 167771.438 237056.203 151773.422 257841.047 163307.094 137150.547 259186.266 121606.344 101564.406 -35554.262 32843.348 87501.539 102478.453 -54237.609 22159.676 -32185.109 9426.323 160780.875 149185.203 75830.461 25933.703 -86.084 0.000 0.000 0.000 96.219 -13094.500 -33219.059 108934.305 100531.305 79568.766 170056.359 118629.867 27458.361 5417.821 16958.797 -45679.238 95999.508 169479.000 58717.141 8211.598 -36110.840 -35367.543 52526.180 94112.313 194602.391 165541.453 61725.918 24783.926 42.847 0.000 0.000 0.000 0.000 -24095.244 -21800.869 -52728.828 20012.721 41424.063 -8541.109 33353.004 15391.080 86126.531 249427.750 195875.656 58211.609 75271.953 93266.820 84345.484 66255.055 38102.336 65742.930 130567.500 155738.672 100398.055 48408.801 14021.702 228.518 0.000 0.000 0.000 593.993 -12095.042 -55194.191 -80235.281 -145031.828 13620.643 15684.636 94299.508 175306.406 83194.867 75608.828 -65250.801 72912.305 113620.672 133954.203 73574.750 49980.895 33399.898 61290.387 31383.305 29459.195 34871.809 36874.637 3483.166 138.063 0.000 0.000 0.000 0.000 -8067.689 -8892.258 -38619.336 -80594.586 -76505.672 -34568.059 86086.531 196069.594 216289.953 134846.016 156262.297 141221.172 177025.688 140172.578 159726.828 91603.336 6055.332 -48129.129 -30932.646 26315.484 39446.207 34318.160 -738.329 0.000 0.000 0.000 0.000 0.000 1827.048 4851.175 2957.308 -5210.902 -6352.989 4154.684 59784.172 76705.219 159676.250 179347.922 162888.313 102286.531 164809.531 120116.320 89868.930 27270.318 -1912.299 -25396.160 5338.430 31737.545 44048.176 28686.740 0.000 0.000 0.000 0.000 0.000 0.000 0.000 0.000 0.000 -61.528 -1636.626 -12716.413 -18391.408 -22665.295 -16634.484 17893.375 39572.813 19576.621 10348.592 -11421.766 7249.107 -25461.494 -16871.625 341.080 -72.940 4028.809 117.631 0.000 0.000 0.000 0.000 0.000 0.000 0.000 0.000 0.000 0.000 0.000 0.000 0.000 0.000 0.000 0.000 0.000 0.000 0.000 0.000 0.000 -0.000 -0.000 -0.000 0.000 0.000 0.000 0.000 0.000 0.000 0.000 0.000 
28 28
-652.670 0.000 0.000 0.000 0.000 0.000 0.000 0.000 0.000 0.000 0.000 0.000 0.000 0.000 0.000 0.000 0.000 0.000 0.000 0.000 0.000 0.000 0.000 0.000 0.000 0.000 0.000 0.000 0.000 0.000 0.000 0.000 0.000 0.000 0.000 4498.895 10857.979 7375.925 1861.381 18073.828 30079.004 37228.730 8751.339 -3963.502 -10.470 -106.606 1.562 103.202 49.519 0.000 0.000 0.000 0.000 0.000 0.000 0.000 0.000 0.000 0.000 0.000 0.000 0.000 0.000 5020.614 26321.949 29238.164 68546.594 90723.547 174104.719 94473.523 77250.047 52455.215 82231.461 89929.836 68932.258 15610.579 47810.738 40477.156 67821.898 50885.328 4463.462 -24.037 -23.867 0.000 0.000 0.000 0.000 -385.088 -105.637 807.671 11168.606 30781.242 52427.383 67436.406 82756.320 62453.965 112470.320 40481.809 78246.734 115169.859 89785.898 106279.406 94796.391 174110.156 208093.344 169471.250 126539.938 118755.961 91913.125 55358.414 12576.751 1016.991 0.000 0.000 0.000 -1320.300 -345.318 -9044.686 16235.542 13125.316 49253.785 79216.641 32732.039 44625.129 1624.779 -86884.945 17360.383 -45850.113 -94722.250 -25220.445 152993.938 222643.297 235527.938 302249.906 210724.609 151725.484 107870.883 53306.008 16550.982 1266.348 1123.466 0.000 0.000 -183.375 -237.650 -1816.822 -20972.861 -24008.334 -10013.700 35639.992 13511.745 81056.180 -46101.031 -96906.766 -111833.008 -93124.219 -54388.969 -97304.781 23876.938 128421.016 173255.844 202115.328 158382.453 144277.453 107706.313 85067.648 27392.795 1796.256 1658.449 0.000 0.000 0.000 0.000 -3173.468 -44139.215 -58332.180 -73568.539 25173.234 -11630.684 -8583.703 -140003.563 -145772.500 -101053.133 -70078.016 -33588.746 -68087.336 -111943.805 -97970.031 9348.880 23524.174 -27597.816 -10302.970 57486.691 29254.887 -13792.048 -24103.023 3.153 0.000 0.000 0.000 -8187.553 -14249.263 -36773.832 -60677.016 -71751.656 -71659.383 -139889.813 -193884.641 -198186.156 -168267.094 -179791.938 -183071.672 -236849.734 -209111.031 -243997.406 -234664.797 -213051.797 -194471.125 -116759.734 -149870.703 -55243.113 -56462.008 -77622.445 -16516.486 -9727.655 0.000 0.000 0.000 -15206.248 -20496.791 -45919.316 -67848.742 -127607.305 -169098.563 -203134.250 -226331.047 -132391.516 -198608.047 -289491.031 -232931.047 -272533.719 -334995.969 -396580.719 -474932.875 -270546.188 -217510.172 -186524.016 -212398.141 -155473.063 -127555.938 -67031.836 -36264.758 -7745.911 0.000 0.000 -475.385 -17232.555 -28214.994 -76063.203 -90536.969 -112457.688 -86934.836 -138709.547 -178811.875 -115654.367 -139797.906 -230533.891 -135015.813 -233689.422 -330997.906 -444762.469 -437020.531 -295524.594 -311419.625 -280488.313 -235256.594 -145451.766 -115293.938 -63376.473 -58092.160 -10660.257 0.000 0.000 -2447.357 -21159.209 -32594.986 -65837.250 -32625.957 -10258.802 20689.188 -233.855 -42265.840 -107744.492 -105666.914 -108024.883 -161742.141 -329871.906 -368088.219 -417004.063 -388948.688 -355419.219 -244610.891 -232484.375 -165874.891 -40738.887 -66874.141 -80659.023 -48549.414 -3485.613 0.000 0.000 0.000 -12974.290 -33781.961 -16071.297 2084.708 99515.547 77470.219 89403.336 28283.174 -4551.965 28400.031 -12866.203 -138963.297 -292815.938 -197132.031 -199266.422 -151769.406 -167168.984 -139284.688 28171.912 27366.510 122978.117 3017.201 -78169.344 -44126.367 -2866.490 0.000 0.000 0.000 -3606.740 -51038.152 7958.119 66035.109 112181.148 73440.172 103471.227 50357.266 171998.766 93033.273 19167.416 -75326.148 -150394.797 -56631.039 -71607.773 -160037.250 -256657.641 -117898.508 24157.555 160336.656 267638.188 153198.688 -38555.805 -28023.701 -776.775 0.000 0.000 0.000 -8455.263 -55827.887 89234.516 179009.391 160519.172 93866.711 43012.215 208028.000 142674.797 116697.078 8775.633 -124215.031 -56382.984 39991.430 -64842.395 -128236.602 -142373.281 -3151.049 87353.820 236690.094 333128.469 178563.297 -34561.543 -33634.359 -239.743 0.000 0.000 0.000 -7993.272 -60372.957 76453.094 140909.469 154292.766 97659.719 133454.641 223387.797 262460.563 135511.406 -76846.914 -60837.156 49709.176 107667.664 -79390.148 -136149.484 -96355.828 -20996.527 112538.414 209750.781 232655.703 91700.617 -34033.793 -15773.520 -26.638 0.000 0.000 0.000 -25804.768 -94181.781 34857.906 168239.297 192982.141 146180.797 152683.641 283664.281 277361.125 128711.023 106291.961 127886.172 130170.656 -3399.812 -144932.703 -154727.000 -47428.785 91908.531 120399.367 110671.930 92040.117 28104.811 -49668.520 -16504.189 -5674.765 0.000 0.000 0.000 -38432.344 -108353.438 23742.732 77945.344 183488.328 191473.313 178663.547 283968.781 360947.188 125294.727 92004.773 169485.875 95253.391 -66462.391 -193704.594 -67617.555 60842.090 93738.828 21332.898 32705.092 45877.867 -26238.133 -89031.602 -41453.547 -17754.883 0.000 0.000 0.000 -36516.836 -155850.156 -111605.563 4138.105 212973.969 212677.391 243030.578 299628.594 316250.188 139586.734 125632.945 167884.313 48905.492 -56806.168 -78948.406 81906.148 69656.828 70204.484 74578.984 85347.148 1556.915 -81033.469 -62934.543 -20993.434 -3507.804 0.000 0.000 0.000 -46723.563 -181470.953 -260660.656 -108824.289 76872.352 136511.031 177203.750 326905.469 228543.969 215229.703 175797.484 97346.539 -35769.457 30807.809 193133.766 183302.656 66837.805 9736.135 -8628.663 25840.168 -80475.781 -71940.602 -20251.730 1840.441 -146.700 0.000 0.000 0.000 -51358.508 -191529.469 -275616.563 -161578.750 11986.765 105529.023 182609.734 318665.844 298152.875 200840.375 126693.641 68881.867 69019.172 104716.758 117586.109 70518.438 52134.336 96527.320 -24311.117 -33845.559 -108937.898 -46117.563 -22306.211 -18884.781 -0.000 0.000 0.000 0.000 -44909.313 -165866.594 -255506.125 -244296.219 -50768.988 -31353.232 117915.906 240122.266 313457.719 304681.500 186834.203 301657.219 310600.625 148834.969 57872.461 127118.242 75718.703 25805.279 -113791.172 -106907.742 -64265.777 -44794.543 -13611.966 -4116.260 0.000 0.000 0.000 0.000 -29250.967 -111565.133 -196076.109 -250005.828 -182007.984 -153850.719 69804.172 258423.563 349705.625 339776.250 384769.250 360569.281 229196.828 75867.383 91588.234 108255.961 26028.582 -45803.957 -102868.070 -77331.102 -37410.047 -23877.955 -11614.955 -198.229 0.000 0.000 0.000 0.000 -10100.873 -61923.727 -114158.672 -163099.313 -229190.000 -190241.859 -70797.844 56860.703 -23535.090 -11951.938 71148.727 20921.445 53938.867 -5164.648 1094.718 -3074.932 14598.096 -7557.069 -23858.758 -62740.695 -44454.898 -12099.656 -9743.523 0.000 0.000 0.000 0.000 0.000 0.000 -10611.332 -30579.305 -50256.762 -133987.344 -177266.453 -184843.156 -174851.453 -175885.063 -166389.094 -96891.961 -102292.656 -129728.789 -111176.180 -124018.914 -108573.164 -38953.895 -20033.230 -21360.238 -34089.383 -25880.527 -8038.972 -6479.350 0.000 0.000 0.000 0.000 0.000 0.000 -18.337 -485.943 -2943.162 -10368.591 -29732.256 -52681.109 -92718.555 -136946.953 -117595.180 -108272.953 -148028.953 -148827.922 -120869.352 -91375.594 -66693.703 -25682.809 2254.450 -17539.014 -23490.949 -10010.507 -4.161 0.000 0.000 0.000 0.000 0.000 0.000 0.000 0.000 0.000 -990.225 -3786.698 -12086.021 -12382.192 -44874.148 -71214.578 -32753.404 -26483.410 -73633.867 -101805.547 -68267.977 -85512.203 -41302.156 -25137.203 -165.037 0.000 -5383.657 -4952.716 0.000 0.000 0.000 0.000 0.000 0.000 0.000 0.000 0.000 0.000 0.000 -779.344 -2310.523 -2209.672 -6536.874 -28532.270 -16029.330 -2794.750 -21045.938 -28920.234 -11242.249 -30890.426 -22852.494 -22129.785 0.000 0.000 0.000 0.000 0.000 0.000 0.000 0.000 0.000 0.000 0.000 0.000 0.000 0.000 0.000 0.000 0.000 0.000 0.000 0.000 0.000 0.000 0.000 0.000 0.000 0.000 0.000 0.000 0.000 0.000 0.000 0.000 0.000 0.000 0.000 0.000 
28 28
2803.239 0.000 0.000 0.000 0.000 0.000 0.000 0.000 0.000 0.000 0.000 0.000 0.000 0.000 0.000 0.000 0.000 0.000 0.000 0.000 0.000 0.000 0.000 0.000 0.000 0.000 0.000 0.000 0.000 0.000 0.000 0.000 0.000 0.000 0.000 0.000 0.000 0.000 0.000 0.000 0.000 -1597.772 -96.041 0.000 0.000 0.000 0.000 0.000 0.000 0.000 0.000 0.000 0.000 0.000 0.000 0.000 0.000 0.000 0.000 0.000 0.000 0.000 0.000 0.000 0.000 0.000 0.000 0.000 -200.813 -7403.833 -27595.238 -14683.741 -4518.983 -14.940 0.000 0.000 0.000 0.000 0.000 0.000 0.000 0.000 0.000 0.000 0.000 0.000 0.000 -385.088 -91.687 0.000 0.000 0.000 -0.036 -64.792 -628.405 -3327.872 -14870.692 -38538.660 -48132.227 -35323.305 -29725.945 -40726.934 -50851.699 -57594.508 -44366.633 -16676.102 -925.695 -1439.495 -2319.697 -1430.325 -64.181 0.000 0.000 0.000 0.000 -1320.300 -320.906 -0.000 -1682.732 -4679.527 -16174.753 -31917.410 -37954.816 -75911.844 -110891.289 -166349.000 -181221.516 -154581.531 -155691.547 -161392.266 -144642.313 -114773.781 -65205.898 -45729.773 -27731.729 -10043.501 -3455.125 -1466.998 -100.856 0.000 0.000 0.000 0.000 -183.375 -45.844 11832.093 25461.318 -8081.526 6.843 11492.196 -17365.793 -69138.781 -164896.094 -247291.141 -254284.031 -260596.016 -286266.281 -290756.188 -324363.063 -302341.688 -240511.141 -164129.875 -107473.688 -73489.094 -30900.346 -19036.479 -852.695 0.000 0.000 0.000 0.000 -2467.883 5853.450 29887.217 54573.723 83883.813 172972.922 109675.930 8255.334 35406.426 147430.578 64321.125 -111457.945 -69040.961 -10595.282 -55745.340 8378.637 -113878.102 -153870.359 -190689.656 -114976.711 -102895.094 -72077.797 -37558.754 -2845.257 0.000 0.000 0.000 2789.171 -10030.625 35198.629 58557.844 132919.734 194679.125 233224.391 160209.125 72072.039 115213.297 199087.922 132994.391 11839.326 -18765.941 69809.469 226980.547 253814.047 209670.859 79444.352 38956.574 -7775.481 -37048.508 -19597.082 -49298.797 -20883.125 0.000 0.000 -1429.494 3909.896 -2087.339 37605.887 48164.688 108237.328 175191.219 192526.281 91609.273 36273.008 105628.141 134504.000 49865.223 137401.500 208749.469 208589.578 125215.250 174922.438 219491.391 111544.992 170588.953 127952.805 32541.209 6896.041 -14130.938 -24224.859 -8206.042 -6525.744 0.000 15695.633 35510.133 104111.250 111379.617 174902.297 69317.773 50405.137 15971.674 82408.492 89139.281 37337.055 84045.227 65594.625 191824.859 190276.703 230955.938 237378.125 210655.063 128459.344 113287.758 196929.656 75167.984 -67085.750 -10817.512 5926.167 -1153.608 1495.324 0.000 19840.693 50368.715 110478.086 164106.656 158654.016 39291.316 53576.168 -57636.664 -5156.301 29566.781 -19236.354 -24217.141 110413.102 143835.516 270772.000 387445.969 226273.000 182931.625 212949.438 190377.219 128834.273 69941.484 -80627.133 -20843.672 3875.972 1170.148 466.363 0.000 26907.426 81878.133 117286.727 158565.547 105780.891 66495.805 38764.648 3039.890 102010.672 146074.031 17491.553 -25180.746 27746.715 188773.016 399067.500 389717.313 373868.250 234885.359 190061.484 123823.211 123329.781 114348.875 23459.098 -13718.221 -3075.347 96.657 193.313 3856.685 18066.834 83568.797 169590.953 146664.125 114241.586 14660.642 52330.398 31598.080 62822.301 -55614.324 -163546.766 -273564.219 -416985.563 -219995.938 268084.938 389182.031 296656.000 206348.125 87965.789 107975.328 49512.527 90782.086 94742.961 -34.241 1708.705 3014.431 719.552 0.000 2523.931 50875.383 148581.875 119222.836 50078.395 1652.729 -17681.441 -51570.020 -22559.350 -103325.625 -273820.125 -509406.875 -569398.688 -174150.484 217743.656 155954.141 116298.445 189518.297 119571.375 146217.125 29271.928 84198.344 65933.664 25621.842 8560.758 6453.015 0.000 0.000 94.203 27258.527 81651.977 54613.508 45413.754 11420.806 -51251.902 -86750.648 -57175.039 -214770.078 -388363.500 -607096.688 -375957.031 1883.243 63675.531 47891.914 220073.672 367661.656 403256.313 240427.297 91990.016 69576.422 56567.695 12378.998 1663.007 0.000 0.000 0.000 0.000 6455.803 20716.404 21055.584 -3123.818 -62381.875 -45024.656 -92971.336 -136027.125 -276624.375 -379121.531 -437937.094 -220350.641 -59274.313 40705.141 49589.961 298103.250 427119.094 308753.188 332792.906 191984.438 122814.891 57473.813 10507.643 -13385.655 0.000 0.000 0.000 0.000 116.775 -33081.527 27363.814 12281.457 -68028.352 10310.887 -58486.070 -128043.227 -243879.063 -292736.844 -216962.313 -84707.063 -94114.875 138035.078 72277.305 269897.438 216311.641 211489.813 186169.094 87570.242 -25202.568 -35171.109 -35706.047 -27090.307 0.000 0.000 0.000 0.000 17.604 -4175.893 52061.883 -742.263 -58652.211 -128721.898 -219001.609 -170769.359 -190174.688 -152334.703 -111059.156 24716.139 122435.898 48500.395 -19270.574 51886.090 16267.144 58809.027 -7220.426 -52917.059 -90853.016 -44804.711 3848.000 6702.794 5891.007 -440.099 1737.265 0.000 768.108 25464.646 21139.318 -80191.617 -216437.328 -268163.375 -322699.594 -313048.531 -258853.953 -207834.250 -94988.609 55364.727 49014.133 -9911.371 -11102.811 320.505 -60769.820 20219.273 -86640.781 -140561.969 -116914.070 -113091.000 -21295.814 -9371.875 3322.129 -146.700 0.000 5735.996 1875.491 11300.666 3808.176 -119989.766 -284691.406 -323884.563 -266128.281 -157425.953 -187110.281 -167763.594 -81443.016 -10651.313 80949.484 -56676.883 -97422.461 -116758.148 -149173.484 -65281.785 -246280.047 -273982.906 -173655.578 -107817.953 -34555.906 -8543.259 -192.544 0.000 0.000 0.000 -3158.811 -17521.559 -34818.617 -142600.078 -252947.766 -265090.688 -178516.578 -172292.141 -203783.500 -235540.203 -84943.586 -15739.131 -35766.270 -145978.266 -116764.719 -241057.656 -241331.922 -160561.719 -297141.313 -280505.938 -188563.109 -107446.391 -50213.965 -762.604 0.000 0.000 0.000 0.000 -2965.432 -26284.297 -58834.262 -113587.227 -203081.078 -168344.563 -150250.438 -145500.594 -208529.625 -237529.938 -170558.344 -163308.844 -291770.594 -170862.391 -134115.734 -219414.875 -230105.578 -204146.500 -252400.219 -268581.938 -169309.109 -135197.531 -56047.039 -8994.368 0.000 0.000 0.000 0.000 -135.686 -27806.951 -19967.566 -46914.418 -108915.836 -47824.824 -52945.574 -3647.095 -150452.469 -198781.375 -144220.266 -208971.516 -158838.250 -59750.418 -69302.141 -125234.648 -205475.719 -191474.984 -262898.563 -210177.578 -143568.453 -115576.477 -35346.172 -9375.670 0.000 0.000 0.000 0.000 -94.956 -13173.661 24132.906 52347.527 86501.305 91083.266 38185.273 27235.658 -39465.324 -126955.477 -85646.719 -102045.961 45759.926 7001.662 -57957.273 -73222.891 -143218.703 -143006.969 -182995.578 -148936.922 -93345.891 -79389.938 -20060.336 -4374.615 0.000 0.000 0.000 0.000 -94.956 19244.820 71418.953 153624.266 212164.094 260963.641 203840.891 85469.289 69250.188 60769.836 131313.563 166923.422 141854.109 2906.440 -20150.443 38798.547 -1596.562 -87120.609 -85290.352 -53281.477 -52491.500 -37653.426 -7859.132 -5486.087 0.000 0.000 0.000 0.000 -7.001 5914.600 44260.516 87224.969 136228.844 143266.859 148492.766 184554.484 191945.891 264982.844 182213.141 150539.563 191710.500 97905.828 125402.313 188363.297 74670.039 -51622.043 -48916.703 -1280.486 -4672.150 -12390.761 2113.076 0.000 0.000 0.000 0.000 0.000 0.000 0.000 -2834.594 4839.624 21560.959 52987.066 60106.340 88561.422 91689.422 65119.168 34468.457 925.704 151583.875 123370.023 130551.141 179470.563 176127.797 42953.539 -5408.015 11142.239 2425.533 -833.805 0.000 0.000 0.000 0.000 0.000 0.000 0.000 0.000 0.000 0.000 -323.704 1541.813 6237.231 7880.199 12309.207 15437.188 34211.691 57563.703 26061.971 19494.094 42548.004 49106.355 62361.500 36806.871 17471.852 7475.988 4712.562 729.185 0.000 0.000 0.000 0.000 
28 28
-8795.494 0.000 0.000 0.000 0.000 0.000 0.000 0.000 0.000 0.000 0.000 0.000 0.000 0.000 0.000 0.000 0.000 0.000 0.000 0.000 0.000 0.000 0.000 0.000 0.000 0.000 0.000 0.000 0.000 0.000 0.000 0.000 0.000 0.000 0.000 0.000 0.000 0.000 0.000 0.000 0.000 0.000 0.000 0.000 0.000 0.000 0.000 0.000 0.000 0.000 0.000 0.000 0.000 0.000 0.000 0.000 0.000 0.000 0.000 0.000 0.000 0.000 0.000 0.000 0.000 0.000 0.000 -10049.908 -28660.248 -11359.251 -9468.507 -16660.105 -21318.463 -8234.388 996.327 1909.463 -17620.109 -18947.865 0.000 0.000 0.000 0.000 0.000 0.000 0.000 0.000 0.000 -385.088 -91.687 0.000 0.000 0.000 -3.283 -14800.774 -18911.955 -23874.830 -58071.730 -55818.008 -67351.516 -79059.258 -64677.223 -67351.781 -49225.504 -63620.707 -83344.313 -95438.281 -37372.816 -14460.373 -64.286 -2150.719 -322.041 -1016.991 0.000 0.000 0.000 -1320.300 -320.906 0.000 590.307 -20721.865 -43879.363 -31629.543 -29817.092 12721.681 14093.805 67431.836 63444.707 162124.094 89741.414 33346.438 39973.090 -14501.267 5596.359 -23320.283 -94887.453 -124468.742 -79662.141 1187.368 19918.396 3952.706 -1123.466 0.000 0.000 -183.375 -45.844 -117.212 -8014.900 -43514.793 -56399.129 -135207.609 -119680.164 -78399.766 58751.598 104264.336 85772.992 70545.523 50606.344 98798.852 124856.836 5104.015 18253.516 22783.297 -35121.559 -59122.801 -38628.980 -23786.797 11497.526 -3074.326 -1658.449 0.000 0.000 0.000 -181.555 -3349.455 -24613.373 -34988.008 -34348.336 48821.383 63115.566 87243.680 96747.570 118462.922 22013.986 21151.041 48855.281 49153.574 14649.203 6525.979 88522.391 52322.961 29982.484 33273.867 56717.742 28369.299 18660.348 -7654.432 -2309.204 0.000 -2789.171 0.000 -8311.578 -7311.687 -34785.977 -986.725 21245.984 147345.281 25457.090 -20689.604 -119306.117 -29083.471 16280.954 -58138.914 120688.641 1932.812 -18418.023 62236.320 10637.940 33470.930 139061.156 161100.953 179467.313 106827.969 -11849.563 -18250.039 -15888.965 0.000 -2459.128 -2213.536 -16910.186 -14860.576 -39530.801 120554.047 124888.531 73730.391 165758.250 43460.293 -48862.941 193179.625 171463.484 -152660.016 -183333.500 -6060.599 67931.258 91151.281 78916.820 -10438.364 51422.777 169382.797 128630.477 95812.117 -22239.285 -32265.063 -4943.239 0.000 -9385.415 -22401.100 -36349.656 -54273.086 16772.996 155709.609 83092.711 40623.609 185761.844 66557.445 139824.859 99418.102 59756.348 -167653.719 -165476.219 6089.514 26772.391 -3555.510 98782.109 -13667.129 62882.547 133768.953 189897.859 -14435.908 -120880.172 -10677.869 -1690.668 0.000 -13281.268 -22401.100 -19416.178 -35633.918 4050.786 131092.750 98170.227 195798.875 64442.418 186371.250 212057.000 63772.125 107008.023 6580.853 -159917.641 -224420.438 -124895.805 -13829.298 29140.318 112978.375 105098.594 188375.500 71987.680 -59161.098 -78237.078 -4673.126 3019.250 0.000 -354.166 -6374.995 4378.213 50429.074 132758.281 170846.297 258325.672 247814.141 162434.578 42380.793 -14776.387 87985.648 135862.188 275656.438 -1565.635 -186587.750 -156742.688 -90217.977 -22054.676 58008.656 135503.625 172725.391 72979.148 38421.055 -28821.871 -11454.323 2673.177 0.000 0.000 0.000 14157.078 46718.742 108823.695 196250.234 107948.313 92097.281 84849.516 -64958.762 -39891.730 148615.516 229408.141 175076.969 4319.621 -19761.029 -6631.264 -23918.432 43082.898 107371.477 219341.563 136784.047 58622.813 66830.211 26194.674 -1081.472 0.000 0.000 0.000 0.000 8913.203 19167.656 573.149 61644.254 -35859.707 50953.418 -4259.583 -178743.844 122896.844 97486.297 185290.031 165037.875 145734.859 84147.750 -23028.301 -135917.859 91261.180 -10489.309 -8525.599 -27895.441 -20211.742 -21837.363 2389.312 -10902.918 0.000 0.000 0.000 0.000 -960.481 -7652.192 -112712.078 -139683.938 -258232.281 -224714.891 -92402.102 -43418.363 204638.297 42572.559 245078.000 160717.391 33905.750 -640.669 -1554.818 -3406.259 37002.008 -168848.188 -191554.063 -127342.516 -92033.336 -59612.805 -20199.094 -5547.137 0.000 0.000 0.000 0.000 -15.629 -15846.646 -166833.734 -207576.438 -285458.719 -153657.422 8016.964 -18970.096 -73411.477 103459.000 252121.828 113036.289 -30155.699 -4979.310 -85534.055 -39249.844 -148364.469 -235197.953 -229727.063 -195678.109 -135244.500 -43513.820 -20986.947 -7781.245 -5992.412 0.000 0.000 0.000 -315.386 -29745.324 -163741.281 -197372.156 -235554.266 55818.473 173769.688 -1271.227 -32114.150 46158.418 165303.781 5745.211 -37171.398 85661.648 -74962.086 -181838.328 -213676.438 -206786.516 -231564.453 -241692.641 -138313.297 -48150.539 -27604.488 -16122.517 0.000 0.000 0.000 0.000 -1339.500 -56086.023 -137969.844 -141140.609 -68096.336 88798.375 139841.672 129908.375 -15583.093 198802.734 117188.703 -23723.211 -26769.164 12147.627 -79077.539 -112059.383 -153332.969 -26541.908 -126144.500 -208887.969 -56467.605 -13275.589 -41999.680 -13025.293 -440.099 0.000 0.000 0.000 -2965.583 -123055.750 -22017.080 5699.042 46527.023 50466.652 130782.586 114280.406 124621.602 113279.875 -71098.258 -107837.328 7423.278 -59816.730 -133944.500 -64422.313 -65272.703 -13931.652 30646.787 -33339.574 -843.591 -711.788 -19291.148 -3727.373 -4910.507 0.000 0.000 0.000 -36319.367 -125680.664 42562.324 129625.453 59602.297 114260.563 67294.789 46619.996 -81214.859 -8575.927 -117973.641 -23702.012 -95761.141 -43133.344 9629.614 80430.039 55894.941 15782.277 110544.391 135698.031 -1210.912 -43361.355 -17739.424 -192.544 -2041.631 0.000 0.000 -235.921 -59766.586 -119541.680 8290.520 65551.305 173698.781 173373.219 -26817.465 -9463.206 -65198.309 78587.570 36377.590 -12988.802 110862.594 -100124.406 -44826.215 80441.219 13227.764 -30436.625 101805.180 110057.375 -47927.543 -100067.406 -19389.025 0.000 0.000 0.000 0.000 -2582.010 -41733.508 -85485.750 -58200.750 18375.449 116273.570 187883.703 10314.842 -80312.461 21440.406 -18029.084 30419.016 -10524.686 22737.441 -75246.188 -38474.746 40220.332 -20375.020 37597.551 106425.781 88390.922 -79727.070 -51486.398 -13130.691 0.000 0.000 0.000 0.000 -969.894 -26197.438 -103693.430 -122292.617 -28529.518 65412.742 56300.953 73577.063 28541.049 110633.555 128217.242 75610.109 65032.402 203866.078 -30424.150 -38811.840 3019.849 9062.365 103598.180 84575.625 5577.561 -46554.387 -32174.055 -1188.724 -105.355 0.000 0.000 0.000 -593.993 -16994.633 -127639.695 -195508.094 -175307.828 -173522.703 41358.863 63491.691 -28134.791 -952.005 73884.117 170369.609 17787.885 190938.172 98919.266 35848.066 44381.641 69463.820 80223.266 40045.621 19918.617 4936.407 -14223.833 32.796 -1120.832 0.000 0.000 0.000 0.000 -9601.760 -65342.395 -152254.406 -193867.375 -164543.016 -112890.977 -54515.793 -9756.475 134674.766 90108.406 34140.320 -15147.904 59395.453 168822.344 100511.617 103632.938 100863.078 71612.133 14186.317 -30900.480 -29520.545 -13738.101 -2848.467 -486.574 0.000 0.000 0.000 0.000 -883.926 -19318.990 -49852.090 -83672.578 -89850.531 -163453.578 -240299.406 -112732.547 -42597.359 -33986.895 -78832.773 -48655.676 29982.648 72091.914 65019.609 20091.273 8320.365 16227.021 -7661.048 -25654.855 -15070.265 -12687.956 0.000 0.000 0.000 0.000 0.000 0.000 0.000 -7511.811 -29725.539 -36189.094 -26730.359 -53337.691 -75845.531 -69795.656 -66338.477 -50281.852 -89721.477 -71488.578 -51981.664 -15176.238 -5575.688 -27054.201 -40858.496 -18768.869 -9302.250 -8276.818 -109.869 0.000 0.000 0.000 0.000 0.000 0.000 0.000 0.000 0.000 0.000 0.000 0.000 0.000 0.000 0.000 -11244.918 -27890.574 -29395.803 0.000 0.000 0.000 -0.000 -0.000 -0.000 0.000 0.000 0.000 0.000 0.000 0.000 0.000 0.000 
28 28
-1269.120 0.000 0.000 0.000 0.000 0.000 0.000 0.000 0.000 0.000 0.000 0.000 0.000 0.000 0.000 0.000 0.000 0.000 0.000 0.000 0.000 0.000 0.000 0.000 0.000 0.000 0.000 0.000 0.000 0.000 0.000 0.000 0.000 0.000 0.000 0.000 0.000 0.000 0.000 0.000 0.000 0.000 0.000 0.000 0.000 0.000 0.000 0.000 0.000 0.000 0.000 0.000 0.000 0.000 0.000 0.000 0.000 0.000 0.000 0.000 0.000 0.000 0.000 0.000 -0.000 -1168.392 -22918.492 -13121.963 0.000 -5067.593 -25582.412 -27889.760 -29573.814 -22828.582 -9616.754 0.000 0.000 0.000 0.000 0.000 0.000 0.000 0.000 0.000 0.000 0.000 0.000 -385.088 -91.687 0.000 0.000 -0.000 -10156.040 -21929.861 -26772.072 -22571.393 -5679.987 -11901.148 -35669.090 -65515.066 -110716.758 -114189.266 -82862.992 -16561.230 -7431.465 -2699.117 -268.829 -1439.495 -2319.697 -1430.325 -64.181 0.000 0.000 0.000 0.000 -1320.300 -320.906 0.000 0.000 -0.000 -14495.580 -42748.371 -83018.250 -63497.898 -89991.063 -122224.352 -138330.891 -201615.578 -152535.609 -151904.578 -176778.484 -138608.922 -82414.875 -58777.363 -61202.230 -74780.523 -25071.740 -1466.998 -100.856 -0.000 0.000 0.000 0.000 -183.375 -7502.525 -17720.477 -34075.965 -62794.383 -94728.539 -118662.438 -176470.656 -64182.746 2119.289 38112.109 -16181.714 -92504.000 -69851.797 -176938.625 -271305.500 -185978.578 -137382.703 -145906.031 -166141.969 -186175.828 -141082.703 -35302.840 -3570.988 0.000 0.000 0.000 0.000 0.000 -22491.047 -39012.891 -97419.797 -116280.773 -185790.984 -223467.219 -171498.563 -11355.275 27488.053 93193.180 119494.211 170243.016 95934.477 138551.500 75345.773 -4857.435 -105651.219 3017.549 -162274.656 -242268.906 -211228.938 -88867.398 -33087.609 -2282.230 -1078.516 0.000 0.000 -1230.561 -17251.623 -77165.086 -192292.859 -195658.656 -225396.219 -127249.773 -45133.527 75386.367 148164.391 169678.609 221400.688 296228.281 319476.031 319262.469 218214.953 46240.637 123981.148 77230.789 9094.791 -192024.594 -215716.125 -96677.570 -49405.750 -25545.857 -1887.405 0.000 -4521.486 -7180.518 -32739.654 -77925.016 -149059.422 -105169.883 -72908.281 55280.285 54305.633 53495.309 -10517.433 -122515.438 42825.430 228649.844 177427.094 143602.594 188.430 95901.359 120373.500 -4293.634 -25569.305 -70735.016 -130234.594 -101419.508 -49064.547 -7655.207 0.000 0.000 -6310.187 -17925.861 -59526.336 -87798.891 -44361.785 123352.727 66325.422 79279.227 -7275.753 15908.325 58927.742 -24457.408 4701.391 190330.641 211744.094 26580.637 46347.918 -5540.065 29739.455 -263.747 -153072.047 -34054.578 -63755.359 -73913.727 -46630.633 -19811.945 0.000 0.000 -6542.318 -13520.673 -67932.930 -35416.141 114446.461 165827.250 109941.891 137090.172 70961.898 103715.484 113522.617 47367.277 13320.310 189548.313 104075.586 44350.930 48682.344 90835.258 -23452.951 70214.680 49144.188 6072.940 -26245.553 -84206.641 -32906.883 -9323.725 0.000 0.000 -28233.074 -67204.063 -112702.500 5213.769 183352.266 188225.125 101667.578 191699.078 72068.063 156131.719 211626.891 8533.515 16948.072 -12705.716 46538.063 99471.352 224725.141 164493.656 68293.398 393349.469 193057.625 141256.516 -26997.930 -77293.656 -17734.564 3325.026 0.000 -3856.685 -16760.422 -72658.883 -94935.500 40763.859 220461.938 167355.141 105839.906 77831.234 163271.938 203831.422 76503.867 -219280.938 8410.553 201182.906 174772.000 253603.984 251697.063 261465.453 264560.500 229897.109 214628.000 141265.984 -55857.906 -87331.688 -13154.098 -5099.581 0.000 0.000 -2254.676 -42375.555 -48127.855 104624.219 278961.375 160744.547 147131.109 124660.297 -6172.659 -11222.808 -183718.516 -216551.734 68541.898 234736.188 218709.781 265961.781 270410.063 217470.031 248606.031 190238.297 256092.422 49038.938 -130279.609 -109544.969 -24921.428 -11114.354 0.000 -121.738 0.000 -26354.781 -36307.066 82399.000 221807.219 95863.484 -4932.694 46751.418 -34669.887 -54084.719 -161540.125 -124092.133 -62459.563 -10033.983 64620.887 226035.922 51818.012 110508.313 174351.125 215829.375 57349.961 -72122.734 -191061.172 -90428.719 -8056.942 -90.719 0.000 -39.861 0.000 -11696.194 -30998.936 48000.180 87879.961 45045.664 46221.973 52292.324 -42362.859 -57860.395 -19672.961 -109693.148 -244747.047 -59755.773 122788.813 275297.969 114604.328 99288.797 104249.461 -14043.466 -110512.766 -101002.609 -151983.391 -41171.352 -2616.566 -1557.503 0.000 0.000 0.000 -2776.230 -10481.889 13866.772 -14301.338 -78302.539 36861.520 48316.309 -690.954 16554.248 -32621.773 -85186.063 -219044.047 -53665.438 578.305 216896.625 130913.430 67193.906 -66074.719 -134691.094 -247648.938 -132962.359 -115048.352 -55111.699 -5811.169 -252.167 0.000 0.000 0.000 -6103.884 -16527.678 -1503.211 -67535.836 -177050.969 21324.355 65542.938 29399.871 -19110.459 26948.008 11731.909 -43945.383 -11027.029 66838.977 37244.980 121907.422 -8821.221 -38363.414 -83611.773 -185727.078 -231249.766 -180479.594 -143931.031 -22707.510 -953.550 -440.099 0.000 0.000 -4208.480 -38759.523 -20302.367 -91571.461 -116608.664 -108859.867 -81245.281 -43668.758 59828.418 79451.555 -100983.438 -93557.836 -18352.703 86567.742 -114150.039 -14858.646 -142986.188 -65784.078 -65372.324 -186113.313 -240064.109 -224922.281 -124282.359 -29255.830 -1742.056 -146.700 0.000 -5735.996 -16311.380 -35800.355 -59578.910 -91552.680 -67817.867 -41400.477 -156336.047 -320458.000 -233963.891 -152241.313 -187745.344 -105877.813 -157058.047 -120938.352 -176312.000 -160771.859 -135093.391 -23243.037 -14932.175 -186106.469 -217436.672 -147599.453 -48254.844 1933.232 -192.544 0.000 0.000 0.000 -8120.016 -40811.984 -67864.070 -74987.109 -89018.391 -127638.117 -232634.672 -328752.656 -304681.219 -328299.750 -306172.094 -176098.078 -169235.406 -169152.828 -145284.953 -101484.672 -210561.250 -56020.434 -37418.898 -144872.953 -125644.047 -51374.820 -2088.826 5621.337 0.000 0.000 0.000 0.000 2685.079 -19461.158 -43365.895 -59189.473 -61772.809 -69094.742 -92551.055 -184656.781 -140743.703 -204384.031 -138002.047 -188032.516 -187029.484 -161074.953 -60621.449 -120134.906 -189439.078 -100511.781 -73148.711 -79116.023 -42651.566 -12163.727 26979.320 3506.803 -1272.371 0.000 0.000 0.000 0.000 6744.264 -21310.400 -41840.816 -19771.729 -56924.227 -74.400 -48937.066 -32145.307 -108058.852 -34054.652 -18233.449 -25369.615 -132226.063 -4441.913 -159664.609 -140801.984 -172569.047 -75151.648 -31306.793 21727.988 50213.766 23506.957 1762.629 -131.172 0.000 0.000 0.000 0.000 5283.920 -23430.104 -21363.000 10582.331 20527.428 71221.602 -38542.301 16834.881 -9124.140 37714.387 47469.801 -32618.129 -165588.094 -71131.148 -116686.203 -118102.477 3534.352 16477.682 96382.758 76617.570 62246.457 17346.658 355.897 0.000 0.000 0.000 0.000 0.000 -8610.897 -9245.555 18577.148 42059.648 106360.602 115108.000 65101.891 -4438.979 -84607.578 -28963.195 -92819.742 -71930.016 -1849.203 -20953.863 -22438.576 93795.273 128871.695 139759.781 144037.547 134386.156 65491.387 1097.774 -2416.752 -1117.181 0.000 0.000 0.000 0.000 0.000 9148.688 59929.984 106975.820 146069.828 197197.391 153295.813 157277.297 83129.430 21543.785 22037.990 88089.813 19643.334 93850.250 194861.797 181312.563 200486.563 223457.438 143851.203 87650.352 29813.338 4206.829 -991.779 -1185.575 0.000 0.000 0.000 0.000 0.000 17280.131 34777.098 53883.711 38915.340 74877.297 116566.219 168009.031 211425.266 170681.641 273011.969 180965.031 124670.289 58550.504 2250.026 3791.002 117522.797 115066.742 62361.070 14190.762 921.821 0.000 0.000 0.000 0.000 0.000 0.000 0.000 0.000 0.000 0.000 469.191 2666.375 2434.638 181.332 -5902.335 -4192.275 -6321.151 -7283.219 33165.688 11297.689 -27064.881 -24313.672 -17827.471 -21712.340 395.741 459.960 1032.697 -111.947 0.000 0.000 0.000 0.000 
